{{-133, 75, -42, -20, 89, -10, -85, -90, -21, -45, 99, -8, 45, -130, -8, -178, -148, -40, -152, 98, -149, -48, -160, -17, 49, -36, -8, -6, 56, 69, 22, -156, -164, 8, -130, -37, -101, -183, -117, 9, 111, -153, -83, 48, -127, -173, 32, 77, -133, 36, -113, -143, -29, 9, -46, 95, -166, -102, -112, 47, 12, -172, -41, 91, -56, -123, -119, -203, -216, -75, -224, -287, -209, -55, -178, -229, -40, 68, 12, -127, 86, -183, -45, 41, -171, -41, 96, -166, -119, 77, 31, 3, 12, -44, -58, -226, -309, -175, -242, -274, 45, 21, -305, -261, -374, -266, -321, -223, -155, 58, 56, -89, 22, -173, -122, -169, -191, -25, -52, -172, -58, -38, -278, -274, -270, -258, -71, -28, -213, -200, -206, -287, -117, -369, -144, -21, -161, -73, -95, -16, 45, -82, -4, -152, -42, -74, -55, -115, -52, -207, -94, 60, 241, 522, 631, 624, 702, 755, 799, 281, 50, 130, -65, -10, -342, -248, -18, -132, -69, -33, 18, -57, 2, 8, 19, -8, -172, -292, 159, -26, 433, 383, 365, 543, 662, 938, 872, 744, 717, 819, 464, 166, -356, -371, -251, 37, 85, 13, -18, -219, -339, -30, -137, 2, -159, -47, 30, 309, 643, 592, 242, 378, 539, 1007, 741, 648, 265, 509, 559, 286, -218, -357, -320, -20, 96, 35, -42, -2, -249, -193, -159, -195, -103, -109, 305, 321, 164, 69, 114, 453, 1321, 1051, 976, 307, 258, 236, 579, 1009, -112, -336, -34, -177, -28, -17, 29, 22, -312, -223, -319, -183, -181, -93, 219, -188, 109, 330, 294, 250, 723, 964, 1108, 641, 195, -37, 475, 1026, 299, -253, 3, -32, -163, 79, -137, -249, -228, -181, -153, 20, 104, -25, -175, 56, 71, -42, -349, -599, -360, 347, 882, 914, 808, 586, 868, 1188, 565, -234, -235, -179, -122, -163, 68, -51, -446, -96, 69, 336, 252, -97, 88, 8, 173, -119, -946, -1751, -1648, -644, -86, 464, 743, 688, 939, 1065, 766, -148, -10, -190, -128, -41, -59, -49, -252, 40, 366, 383, 185, -52, 262, 186, 343, -283, -1855, -2298, -2288, -1251, -222, -92, 112, 320, 1218, 1114, 774, 27, -122, -124, -182, -5, 63, -174, -67, 227, 444, 573, 433, 303, 414, 322, 232, -1130, -1858, -2361, -1939, -963, -471, -632, -483, 211, 799, 1254, 712, 114, 0, 69, -26, 54, -140, -101, -217, 586, 762, 925, 444, 533, 784, 450, 110, -983, -2191, -2368, -1884, -1031, -454, -549, 49, 446, 532, 1267, 659, -134, -67, -143, 73, 40, -121, -28, -10, 828, 601, 827, 571, 757, 957, 264, -722, -1839, -2455, -2338, -1579, -771, -288, -279, 239, 210, 805, 946, 490, -49, 13, -130, 21, 92, -188, -102, 139, 751, 934, 722, 501, 505, 853, -113, -1401, -2437, -2373, -1883, -1009, -471, -7, 154, 354, 527, 725, 692, 263, 12, -86, -116, -68, 22, -159, -309, 26, 534, 670, 651, 203, 522, 826, -127, -1679, -2404, -2116, -1262, -166, 321, 463, 427, 544, 415, 328, 372, -21, -56, 28, -131, -90, 29, -63, -118, -65, 340, 694, 401, 246, 690, 1324, 52, -1070, -1726, -1203, -367, 388, 414, 433, 225, 112, 187, 361, 225, -28, -111, 13, -63, -56, -78, -70, -301, 128, 373, 892, 810, 634, 841, 1327, 933, 197, -430, -188, -121, 202, -94, -173, -105, 208, 190, 372, -50, 53, -82, -193, 66, 65, 86, -63, -143, -85, 382, 717, 528, 654, 804, 1253, 1252, 627, 191, -131, 90, 85, -183, -139, -195, 103, 128, 197, 68, -111, -26, -156, -81, -116, -171, -61, -113, -72, 99, 443, 720, 505, 548, 1073, 1213, 804, 304, 113, 23, -20, -333, -254, -146, 126, -10, -151, -241, -60, -80, -117, -101, -144, 8, 13, -85, -152, 55, 322, 279, 808, 657, 724, 862, 735, 945, 409, 418, 229, -195, -155, -12, -219, -230, -111, -120, -43, -74, -96, -51, -144, -39, -4, -174, -178, -52, -22, 223, 316, 749, 897, 1097, 1086, 651, 530, 293, 123, -13, -414, -519, -402, -199, -162, -21, -62, 50, -87, -181, -81, -36, -178, -8, -49, -47, -214, -286, -159, -143, 165, 125, 303, 443, 234, -179, -277, -331, -282, -396, -377, -356, -70, -94, -150, -111, 8, -130, -109, 101, -55, 84, 96, -5, -193, -85, -375, -355, -442, -573, -655, -597, -695, -627, -593, -357, -296, -250, -277, -256, -86, 95, 46, -69, -92, -35, 80, 72, -74, 4, -101, -81, -174, 34, -93, -315, -316, -286, -115, -285, -271, -101, -288, -234, -175, -220, -110, -264, -223, 86, -137, 25, 71, -17, -149, 59, -26, -81, 76, 14, 26, -182, 89, 86, 30, 62, -44, -108, 59, -157, -58, -110, -27, -98, -186, -167, -237, -55, 38, -151, -190, 49}
{255, 121, 135, 55, 216, 210, 232, 57, 202, 62, 192, 155, 217, 289, 254, 174, 177, 62, 297, 295, 168, 216, 167, 259, 98, 274, 167, 241, 31, 256, 75, 182, 163, 64, 91, 241, 231, 188, 186, 137, 221, 249, 323, 160, 129, 259, 174, 118, 281, 270, 110, 290, 310, 164, 264, 212, 261, 196, 313, 60, 58, 205, 152, 146, 98, 172, 4, 86, 11, 75, 158, 255, 193, 0, 190, 114, 250, 108, 275, 200, 216, 36, 234, 240, 93, 104, 176, 144, 294, 154, 33, 287, -32, -59, -56, -161, -57, 21, 119, 239, -119, -44, -7, -185, -20, 76, 191, 187, -35, 265, 99, 280, 215, 130, 297, 294, 32, 58, 259, 165, 62, -272, 24, 95, 147, 264, 309, 633, 173, -134, -146, 98, 350, 392, 390, 457, 239, 113, 99, 109, 39, 255, 49, 179, 45, 172, 51, -67, -571, -576, -264, 3, 215, 243, 422, 328, 194, -320, -33, 66, 312, 502, 836, 521, 427, -111, 118, 65, 54, 185, 34, 144, 33, -86, -314, -311, -714, -862, -540, -127, -132, -271, -125, -619, -666, -671, -281, -208, 313, 516, 478, 403, 104, -86, 7, 151, 122, 68, 85, 19, 202, -44, -301, -616, -963, -1226, -832, -364, -333, -479, -592, -921, -804, -755, -680, -24, 142, 88, 84, -259, -354, -142, 114, 133, 148, 125, 123, 261, 83, -9, -358, -543, -1122, -1218, -1160, -624, -287, -353, -288, 125, -510, -173, -29, 66, -384, -371, -594, -780, -620, -153, 230, 303, 307, 70, 125, 107, -20, -34, -456, -432, -772, -1177, -1078, -426, -319, 241, 761, 1090, 404, -29, -183, -740, -910, -898, -1131, -980, -526, 61, 253, 183, 279, 309, 256, 33, 209, -243, -431, -200, -599, -608, -444, -297, -200, 607, 1967, 2077, 986, -22, -591, -712, -862, -778, -733, -455, -153, -27, 263, 108, 52, 47, 213, 227, 0, -69, -36, -375, -242, -374, -550, -831, -96, 1039, 2372, 2513, 931, -204, -188, -496, -525, -487, -451, -211, -90, 208, 292, 205, 32, 280, 134, 90, 286, -55, -88, -125, -357, -468, -991, -1390, -45, 1055, 2792, 1936, 383, 202, -120, -566, -358, -174, -98, -121, 18, 284, 42, 200, 28, 190, 177, 189, 315, 1, 26, -142, -191, -780, -1653, -1677, 2, 880, 2301, 1300, 343, 166, -526, -764, -278, -98, -102, -37, 128, 192, 277, 179, 140, 299, 168, 239, 240, -1, 41, -93, -516, -885, -1647, -1250, -28, 893, 1962, 1263, 377, -702, -951, -722, -427, -124, -135, -92, 213, 32, 59, 170, 317, 52, 203, 129, 72, 184, -181, -206, -325, -969, -1086, -274, 398, 1256, 2100, 742, 135, -1323, -1172, -718, -432, -310, -79, 23, 111, 143, 295, 49, 307, 150, 280, 171, 90, -125, -286, -307, -750, -449, -358, -199, -51, 1652, 1982, 113, -614, -1431, -1184, -762, -579, -247, -251, 3, -111, 17, 75, 159, 127, 303, 67, 299, 221, -175, -628, -681, -487, -312, 223, 2, 539, 1892, 1623, -330, -1128, -1436, -1176, -744, -280, -141, -101, -135, -232, 66, 176, 206, 187, 172, 106, 250, 138, -248, -670, -665, -250, 254, 210, 336, 878, 1413, 977, -643, -1056, -905, -773, -518, -255, -431, -191, -294, -180, 162, 281, 287, 295, 208, 216, 240, 27, -373, -832, -561, -229, 131, 66, 45, 116, 651, 143, -532, -443, -386, -484, -376, -550, -458, -277, -244, 13, 93, 102, 40, 47, 310, 167, 107, -84, -265, -50, -183, -5, 77, -205, -74, -334, -114, -84, 21, 316, 113, -120, -445, -547, -506, -398, -90, 41, 253, 101, 312, 221, 116, 181, 217, 172, 465, 382, 180, 30, -133, 5, -269, -611, -697, -63, 209, 334, 380, 262, -443, -436, -497, -342, -198, 44, 134, 26, 38, 172, 175, 198, 40, 403, 900, 933, 563, 76, -63, -214, -890, -1444, -1104, 3, 216, 827, 1356, 593, 123, -306, -238, -22, 40, 19, 131, 300, 144, 279, 174, 223, 124, 360, 774, 825, 378, 104, -193, -131, -503, -352, -314, -420, 164, 962, 1160, 521, -93, -222, -344, -119, -109, 68, 34, 64, 31, 67, 43, 113, 35, 175, 342, 353, -115, -514, -516, -907, -869, -779, -668, -665, -666, -193, 80, 146, 212, 178, 43, 92, 247, 74, 121, 234, 77, 303, 96, 115, 163, 234, 213, 3, -133, -53, -122, -507, -618, -457, -640, -392, -496, -286, -52, 98, 204, 19, 185, 110, 265, 66, 79, 113, 97, 111, 214, 191, 58, 206, 274, 186, 171, 245, 207, 28, 169, 153, 89, -6, 80, 180, 278, 205, 32, 191, 179, 171, 81, 71, 207, 283, 230, 231, 292, 46, 161, 307, 244, 276, 255, 276, 130, 242, 252, 25, 52, 301, 196, 181, 26, 131, 57, 53, 98, 177, 255, 283, 276, 272, 91}
{-206, 4, -103, -170, -106, -159, -70, -59, -212, -86, -197, -131, 39, 34, -201, -73, -187, -184, 53, 15, -153, -66, -136, -225, -206, -78, -11, -57, -88, -102, 49, -52, -196, -202, -210, -159, -157, -74, 2, -188, -121, -195, -70, -224, -60, -188, -127, -174, -71, -183, -215, -235, 11, -52, 15, -142, -100, -221, -200, -2, -213, -195, -111, -78, -21, -121, 115, 95, 295, 235, 215, 85, 290, 99, 84, -148, -5, -69, -301, -106, -32, 72, -87, -122, -147, -167, -48, -153, 41, -186, -68, 0, 52, 471, 737, 732, 700, 1030, 562, 249, 473, 217, -206, -51, -233, -273, -334, -166, 24, 78, -185, -38, -162, -113, 56, -241, -213, -68, 109, 105, 303, 902, 911, 1145, 968, 767, 697, 308, 412, 381, -115, -193, -149, -454, -549, -528, -68, -68, -221, -42, 18, -72, -174, -233, -191, -164, 101, 441, 611, 1046, 1159, 1209, 1107, 1242, 1149, 1066, 1157, 936, 676, -286, -276, -451, -458, -711, -307, -175, 28, -136, -93, -166, 37, -90, -117, 73, 431, 834, 638, 724, 980, 613, 651, 841, 743, 404, 447, 115, 85, -263, -175, -574, -569, -794, -473, -265, 33, -27, -123, 24, 26, -112, 11, 231, 555, 804, 658, 614, 234, 277, 47, 431, 531, 111, 71, -674, -229, -190, -216, -253, -189, -654, -453, -139, -175, -213, -49, 31, -91, 29, 121, 376, 272, 384, 389, 432, 434, 496, 295, 352, 929, 522, -65, -256, -7, 206, 4, -143, -379, -763, -585, -244, -115, -188, -161, -40, -9, 97, 189, 421, 147, 28, -146, 226, 176, 227, 59, -24, 606, 656, 226, 17, -61, -6, -28, -15, -241, -649, -554, -181, 28, -209, 40, -48, -96, -137, 28, -103, -211, -1023, -916, -692, -1057, -1173, -1364, -1532, -643, 116, 165, 27, 85, -125, -91, -125, -321, -746, -410, -18, -19, -173, -214, 52, -22, -196, -384, -839, -1439, -2028, -1949, -2295, -2301, -2101, -2230, -2717, -2090, -1000, -347, -298, -287, -58, -173, -180, -475, -325, -59, -113, -178, -50, -74, -61, 21, -90, -413, -1248, -2428, -2971, -2771, -2626, -2400, -2246, -2239, -2330, -1914, -1277, -876, -787, -397, 1, -8, -223, -506, -769, -94, -128, 57, -62, -155, -102, 53, -160, -669, -1574, -2498, -2293, -2140, -1471, -1043, -489, -772, -352, -882, -900, -1067, -771, -425, -82, -125, -274, -636, -579, -293, 73, -98, -7, 33, -54, 5, -135, -256, -1063, -1345, -1097, -440, -76, 274, 362, 430, 669, 45, -429, -319, -553, -93, -356, -113, -410, -736, -535, -105, 260, 295, -165, -115, -91, -119, 242, 117, 53, 287, 336, 625, 442, 530, 311, 275, 647, 48, 253, 36, -514, -489, -300, -219, -331, -667, -343, 204, 349, 188, -187, -143, -222, -252, 258, 542, 884, 901, 536, 222, 462, 429, 392, 808, 712, 149, -86, -4, -334, -292, -512, -182, 27, 112, 237, 755, 935, 156, -147, -121, 42, -95, 313, 925, 1289, 1178, 807, 561, 681, 1047, 858, 984, 460, 237, 320, 323, -50, 209, -134, 386, 412, 306, 425, 1209, 1049, 239, 31, -28, -15, -319, 84, 1003, 1695, 1594, 1147, 765, 851, 1300, 1175, 1872, 1366, 1193, 580, 399, 734, 473, 322, 866, 894, 975, 1288, 1598, 922, -89, -191, -162, -152, -223, -4, 551, 1029, 1300, 1127, 1040, 1101, 1054, 1120, 1253, 964, 624, 296, 459, 798, 385, 376, 643, 802, 1048, 1124, 969, 507, 42, 11, -201, -16, -54, -277, 489, 604, 937, 1304, 1239, 820, 789, 1321, 734, 243, 162, 200, 258, 11, 571, 892, 605, 860, 1198, 1040, 748, 354, -5, -34, -79, -192, -35, -111, 102, 259, 650, 731, 644, 804, 711, 698, 274, 130, -71, 30, 347, 380, 834, 877, 384, 860, 1062, 1210, 596, 236, 54, -27, -203, -55, -175, 57, 204, 73, 442, 388, 362, 508, 505, 598, 64, -474, -596, -338, -318, 246, 775, 989, 900, 861, 747, 824, 306, -34, -53, -144, -50, -44, -90, -104, -117, -231, -283, -246, -403, -237, -158, 203, 18, -317, -429, -561, -608, -317, 124, 774, 678, 830, 596, 227, 137, 87, -20, -107, -77, -158, -8, -27, -167, -434, -839, -627, -645, -689, -683, -524, -528, -287, -374, -533, -506, -397, -485, -262, -232, -231, -135, -107, -16, 86, -181, -176, -8, -227, -116, -139, -179, -306, -407, -620, -688, -638, -578, -736, -493, -462, -613, -505, -375, -352, -135, -322, -116, -125, -6, -174, -65, -170, -221, -167, -213, -135, -98, 10, -35, -107, -43, -8, -111, 12, -4, 7, 20, -65, -147, -241, -127, -67, -81, -172, 22, -5, -170, -134, -216, 9, 6, -12, -19, -157, -195, -78, -219, 45, 40, -127, -14, -172, 29, -224, -12, -109, -51, -191, -79, -117, -67, -84, -25, -233, -100, 7, -233, -88, -34, -125}
{-81, -200, -10, 9, 20, -18, -76, 20, -161, 12, 13, -138, -141, -145, -134, -116, 2, 8, -199, 20, -65, -56, -262, -15, -10, -246, -121, 7, -206, -129, -203, -71, -232, -111, 26, 14, -248, -259, -233, -77, -56, -119, -139, -186, 25, -199, -45, -152, -149, -241, -101, -24, -217, -13, -86, -215, -181, -102, -109, -199, -64, -43, -170, -46, -23, -119, -221, -215, -243, -210, -133, -153, -172, -179, -46, -6, -124, -204, 22, -17, 0, -159, -251, -117, 27, -48, -114, -31, -51, 1, -76, -15, -30, -96, 88, 296, 625, 519, 529, 584, 405, 457, 357, 26, -36, -437, -253, -22, 12, -192, -88, -169, -90, -15, -69, 7, 95, -1, 367, 310, 846, 726, 901, 1084, 1257, 1348, 1212, 888, 501, 400, 655, 80, -449, -700, -599, -586, -72, -107, -153, -40, -221, -253, -189, -189, 47, 382, 698, 558, 639, 563, 510, 664, 674, 809, 138, 539, 622, -48, -34, -283, -393, -833, -1066, -902, -262, 1, -180, -111, -198, -156, -173, 80, 473, 880, 672, 515, 780, 637, 566, 541, 724, 1039, 722, 260, 687, 630, 600, -269, 255, -254, -915, -915, -560, -113, -25, -88, 10, -31, 53, 395, 1038, 1033, 728, 204, 219, 462, 142, 211, 609, 577, 956, 561, 172, 480, 397, 432, 438, 61, -442, -1026, -736, -194, -252, -135, -98, -151, 43, 368, 856, 813, 611, 249, 414, 197, 523, 167, 142, 255, 1039, 862, 199, 479, 689, 449, 657, 338, -176, -951, -712, -260, -221, -159, -125, -245, -78, 159, 442, 587, 486, 118, -62, -454, -865, -1588, -1289, -172, 1238, 1903, 1099, 643, 699, 646, 967, 617, -188, -945, -476, -268, -202, -169, -27, -41, 13, 238, 214, 91, -277, -702, -1283, -1834, -2247, -2305, -1698, -429, 1015, 1174, 999, 931, 575, 997, 926, 371, -333, -613, -229, -260, -110, -28, 30, -28, -213, 232, -138, -719, -1079, -1586, -1982, -1713, -1304, -615, -333, 430, 675, 679, 310, 703, 870, 849, 741, 3, -327, -274, -241, -143, -198, -221, 8, -167, -43, -13, -262, -722, -1264, -1581, -1430, -762, 14, 126, 201, 456, 1131, 584, 399, 564, 452, -40, -586, -805, -842, -536, -95, -163, -88, -62, -115, -174, -107, -72, -335, -494, -1028, -1187, -805, -159, -262, -683, 54, 973, 983, 179, 446, 475, 252, -336, -898, -903, -713, -501, -288, -7, -53, -153, 23, -196, -126, -82, -62, -413, -928, -839, -570, -80, -597, -637, 180, 471, 503, -75, -205, -153, 68, -391, -529, -257, -364, -246, -324, -291, 7, 14, 21, -193, 28, 71, -83, -464, -861, -921, -689, -404, -448, -152, 185, 765, 439, -44, -640, -186, -63, 168, 396, 387, 133, 50, -243, -55, -77, -194, -73, -42, 176, 31, 129, -215, -352, -609, -1325, -1396, -1237, -314, 368, 955, -104, -698, -738, -241, 310, 814, 573, 721, 700, 310, -92, -62, -9, -24, -29, 29, 3, 446, 246, 77, -237, -804, -1431, -2269, -2824, -2577, -1957, -1115, -1035, -924, -37, 284, 522, 826, 171, 999, 998, 300, -148, -213, -194, -178, -110, -103, 86, 660, 475, 286, 150, -175, -509, -1661, -2447, -2315, -2795, -2281, -1443, -329, 582, 785, 846, 836, 585, 1167, 1089, 416, -384, -260, -189, -31, -30, -191, -123, 828, 844, 992, 854, 313, 94, -349, -252, -789, -1152, -1226, -835, 294, 788, 985, 1104, 987, 874, 1020, 390, 45, -325, -60, -33, -70, -42, -252, 149, 888, 1092, 1182, 1251, 631, 743, 841, 310, -85, -283, -433, 130, 232, 444, 792, 829, 564, 983, 558, -105, -224, -260, -77, -81, -90, -170, -12, -62, 441, 1054, 1053, 919, 518, 553, 183, -73, -249, 79, -45, -66, -122, 258, 94, 506, 814, 473, 181, -184, -474, -154, -196, -258, -241, -107, -74, -50, 274, 529, 720, 643, 366, 28, 264, 320, 388, 107, -142, -151, -215, 167, 127, 125, 562, 273, -97, -127, -165, -362, -272, -50, -8, -76, -204, -169, 180, 578, 873, 650, 687, 166, 440, 279, -5, -221, 35, 89, 220, 163, 340, 541, -92, -363, -359, -189, -237, -21, -62, -225, -206, -162, 25, 27, 3, 371, 598, 705, 832, 845, 693, 1010, 1067, 1093, 861, 759, 561, 536, -47, -436, -603, -542, -331, -309, -92, -154, -4, -158, 28, -25, -260, 19, 41, -65, 233, 351, 196, 473, 479, 895, 1023, 1099, 860, 611, 245, -99, -388, -390, -320, -317, -160, -160, -18, -194, 24, -255, -36, -184, -262, -250, -64, -61, -173, -201, -70, -64, -84, -118, -99, -146, -79, -147, -284, -174, -83, -114, -75, -245, -241, -37, -140, 6, -189, -21, 29, -125, -196, -87, -246, 12, -67, -13, -78, -41, -249, -204, -54, -205, -39, -153, -90, -146, -5, -235, -195, -17, -86, -197, -61, -232, -252, -15, -117}
{-1, 36, 241, 241, 4, 4, 189, 51, 15, 35, 6, 173, 228, 130, 168, 18, 157, 216, 45, 174, 13, 103, 232, 23, 232, 36, 254, 104, 66, 119, -2, 20, 116, 280, 58, -46, 156, 5, 104, -82, 72, -113, 5, 154, 181, 53, 2, 45, 195, -5, -7, 16, 173, 183, 43, 182, 209, 136, 207, 212, 201, 179, 238, -77, -83, 43, -28, -142, -547, -221, -265, -375, -273, -54, 68, 192, 249, 143, 235, 63, 89, 159, 9, 110, 211, 190, 73, 119, 124, 1, 158, -141, -206, -113, -470, -556, -888, -847, -806, -979, -653, -327, 47, 104, 189, 279, 73, 74, 271, 260, 80, 153, 263, 175, 197, 191, 113, 216, -163, -37, -331, -280, -796, -757, -1035, -860, -1056, -904, -439, -391, -234, 224, 309, 353, 336, 446, 123, 250, 63, 41, 268, 75, 189, 61, 173, 35, 122, -150, 40, -173, -582, -386, -662, -821, -574, -474, -80, 72, -114, 191, 234, 316, 737, 832, 452, -45, 74, 44, 249, 275, 81, 216, 235, 193, 191, -16, -44, -229, -462, -812, -1231, -1455, -1519, -1319, -1351, -792, -819, -369, -243, -19, 1056, 1109, 426, 334, 239, 10, 117, 61, 84, 149, 85, 200, -125, -23, -138, -312, -789, -1229, -1597, -1129, -1411, -1422, -1462, -932, -955, -665, -769, -351, 652, 882, 470, 265, 248, 147, 239, 201, 264, 51, 79, 109, 73, -64, -595, -303, -395, -795, -1163, -744, -1686, -1731, -1346, -843, -757, -239, -462, -454, 300, 462, 352, 70, 95, 172, 284, 239, 223, 46, -149, 4, -367, -263, -171, -57, -204, -245, -253, -671, -2429, -1818, -441, -326, -101, 53, -256, -250, 125, 28, -290, -301, -131, 192, 152, 107, 108, 29, 113, -328, -541, -263, 78, 692, 418, 313, 374, -929, -2565, -782, 89, -116, -88, 90, -512, -339, -64, -558, -316, -201, 159, 263, 177, 185, 156, -98, -37, -183, -194, 163, 523, 882, 1216, 773, 873, -1423, -1932, 250, 998, 168, -58, -161, -547, -468, -239, -433, -481, -28, -17, 66, 198, 173, 82, 119, -13, -179, 513, 846, 1311, 1149, 1911, 2165, 2047, -34, -1019, 801, 1301, 147, 54, 177, -32, 38, -59, -287, -257, -73, 282, 163, 30, 186, 25, 77, 219, 619, 1261, 1463, 1682, 1405, 1640, 2672, 2026, 30, -288, 938, 964, 1071, 738, 332, 739, 544, 259, -152, -133, 14, 226, 162, 28, 232, 18, 272, 548, 1104, 1535, 1680, 1255, 1199, 1445, 1752, 1275, 105, -186, 339, 1073, 1764, 1198, 1101, 615, 413, 134, 75, -44, 73, 138, 65, 191, 274, 176, 227, 495, 562, 874, 805, 1295, 1112, 774, 562, 664, 131, 533, 745, 1547, 1375, 983, 582, -157, 216, 390, 41, -236, 123, 31, 78, 85, 1, 10, -35, 134, 331, 540, 944, 1375, 979, 262, -36, 269, 335, 1261, 1745, 1797, 1493, 1010, 126, 423, 602, 140, -100, -28, 58, 108, 113, 101, 103, 205, -4, -145, -297, 175, 749, 1444, 1252, 453, 356, 516, 1239, 2047, 1620, 1355, 418, 64, -454, 135, 49, -278, -120, -181, -104, 182, 222, 111, 170, 149, 22, -175, -368, -427, -9, 369, 84, -301, -178, 472, 532, 899, 769, 402, -623, -590, -865, -514, -533, -709, -550, -144, -76, 65, 9, 108, 200, 76, 45, -396, -492, -650, -977, -1102, -1174, -1385, -1325, -1174, -688, -205, 178, -534, -460, -566, -781, -873, -804, -817, -553, -146, 109, 193, 176, 287, 266, 77, 45, -322, -550, -799, -1300, -1545, -1637, -1667, -1221, -987, -1104, -694, -362, -125, -70, -287, -622, -418, -473, -571, -293, -281, 20, 67, 192, 53, 83, 21, 38, -4, -314, -787, -1103, -993, -1129, -983, -730, -607, -562, -644, -298, -398, 71, -119, 21, -52, -387, -328, -61, -11, 119, 159, 154, 138, 161, 64, 176, -42, -167, -325, -537, -725, -440, -454, -315, -332, -285, -356, -219, -210, 75, 321, 524, 402, 263, -175, -172, -7, 115, 18, 88, 89, 6, 79, 157, 88, 109, -173, -193, -261, 121, -280, 45, -290, -228, -223, -17, 74, 195, 603, 588, 501, 223, -83, 67, 132, 182, 59, 226, 171, 244, 115, 193, 45, 148, 56, -276, -282, -90, -299, -49, -215, -198, -365, -409, -177, -92, 32, 317, 231, -95, -28, 122, 201, 32, 52, 174, 256, 248, 227, 50, 228, 10, -164, -266, -400, -421, -691, -780, -736, -732, -622, -659, -852, -971, -872, -478, -437, -158, 9, 167, 12, 232, 92, 84, 119, 172, 39, 115, -12, -40, 69, 50, -53, -242, -584, -509, -583, -791, -864, -673, -766, -651, -534, -319, -117, 172, 170, 21, 111, 18, 274, 120, 166, 24, 37, 264, 99, 219, 101, 269, -1, 116, 59, -38, -28, 9, -112, 213, -55, -63, -22, 112, 86, 85, 91, 155, 149, 197, 141, 93}
{-142, -21, -21, -191, -90, -114, -1, -123, -51, 41, -51, -56, -146, -9, -195, -160, -220, -179, -27, -50, -223, -85, -62, -110, -210, -80, -62, -136, -14, -234, -2, -201, -9, -129, -66, -134, -168, -62, 20, -195, -136, -174, -224, -38, -152, -178, -148, -158, -50, -204, -4, -190, 2, -16, -182, -101, -98, -44, -135, -223, -184, -78, -8, -61, -162, -124, 30, -237, -12, -167, -218, -177, -142, -83, -124, -122, 54, 5, 22, -172, -224, -112, -14, -61, -42, -65, -181, -12, -200, -132, -237, -155, -221, -158, -383, -489, -280, -262, -322, -107, -47, -253, -152, -48, -35, -106, -257, -173, -310, 35, 22, -203, -216, -134, 21, 11, 29, -155, -167, -346, -584, -775, -1131, -723, -729, -977, -538, -3, -64, 182, -56, -278, -363, -192, -158, -111, -137, 50, 28, -101, -83, 50, -175, -201, -149, -354, -534, -516, -338, -64, 113, 122, -183, -262, -158, -74, 261, 267, 506, 315, 306, 392, 724, 616, 432, 239, 148, 55, -193, -211, 26, -203, -261, -623, -280, -33, -23, 252, 524, 436, 74, 160, -73, -249, -151, -127, 5, 497, 284, 323, 989, 1189, 1338, 707, 349, 85, -110, -60, -86, -257, -724, -850, -518, 66, 338, 664, 647, 565, 163, -54, -181, 12, 279, 253, 320, 716, 619, 741, 1036, 1389, 1696, 1225, 188, -30, -49, 44, -4, -350, -1043, -892, -645, 39, 503, 148, 270, 525, 320, -361, -792, -480, -294, 28, 80, 597, 630, 898, 1419, 1857, 2478, 1601, 291, -30, -206, -121, -224, -487, -560, -517, 62, -37, 430, 373, 406, 1084, 699, -291, -954, -1367, -1277, -744, -171, -5, 580, 1241, 1795, 2456, 3087, 2028, 363, -144, -45, -142, -192, -155, -163, -105, 346, 645, 1007, 1114, 1065, 1289, 1072, 824, -177, -674, -1125, -1089, -1127, -1285, -880, -274, 149, 824, 1645, 1236, 420, -143, -193, 1, -157, -103, -160, -23, 550, 671, 971, 897, 656, 723, 1197, 1118, 17, -697, -864, -931, -1242, -1733, -2515, -2309, -1893, -1380, -491, 53, 138, -84, -87, -72, -104, -145, -110, 278, 631, 563, 414, 237, 699, 1448, 1353, 1387, 143, -704, -1309, -1060, -719, -1032, -1176, -1952, -2227, -1935, -1294, -368, 19, -2, -77, -184, -195, -136, -42, 145, 423, 310, 358, 296, 974, 1088, 810, 756, -152, -838, -1364, -721, -256, -296, -141, -553, -1000, -1461, -1100, -191, -208, -31, -74, -199, -98, -246, -83, -90, -5, -47, 447, 708, 850, 162, 287, -54, -609, -701, -973, -860, -806, -389, -337, -306, -186, -803, -540, -271, -97, -240, -215, 32, -232, -95, -344, -516, -722, -478, 173, 798, 379, 349, 301, -273, -903, -1039, -938, -961, -677, -35, -230, -194, -233, -267, -188, -6, 37, -144, -130, -84, -56, -231, -135, -587, -1175, -1389, -940, -520, -207, -297, -194, -641, -1233, -1002, -728, -263, -247, 39, 202, 32, 220, 50, 34, 31, -139, -128, -154, -11, -1, 16, -149, 42, 85, -918, -1660, -1553, -1113, -670, -1047, -1351, -1313, -598, -263, 396, 606, 396, 399, 116, 13, 220, 224, -190, -8, 5, 22, -162, -102, -131, 328, 433, 1030, 181, -993, -1445, -1901, -1698, -1218, -696, -348, -146, -27, 465, 234, 415, 279, 405, 333, 461, 239, 17, -176, -57, 1, -163, -88, 34, 498, 851, 1146, 771, 488, 158, -365, -390, 32, 467, 174, 248, 251, -80, 180, 176, 37, 302, 519, 379, 31, -7, -2, -205, -11, -239, -114, -178, 66, 559, 650, 792, 1110, 937, 823, 1200, 747, 560, -158, -145, 412, 211, 345, 456, 399, 314, 750, 561, -74, -234, -83, -149, -170, 5, -248, -94, 220, -71, 267, 724, 1046, 684, 580, 312, 404, 251, 261, 319, 83, 257, 131, 414, 407, 682, 839, 181, 7, -200, -146, -145, -50, -227, -118, -146, 79, -112, -246, -44, 406, 594, 103, 526, 851, 1051, 535, 80, 59, 131, 275, 273, 469, 424, 442, 155, -23, 24, -86, -58, -188, -92, -53, -73, -178, -118, -356, -162, 322, 315, 314, 560, 538, 368, 423, 387, 379, 174, -201, -29, 186, 75, 249, -156, 41, -128, -131, 38, -18, -123, -142, 43, -244, -259, -93, -48, -15, 416, 540, 416, 270, 376, 694, 574, 342, 166, 317, 206, -12, -30, -76, 13, -168, -61, 25, -206, -92, 8, 24, -216, -2, -67, -256, -95, -230, 135, 100, 281, 280, 491, 26, 146, 123, 240, -162, -8, -269, 23, -101, -181, -22, 12, -229, -121, -72, -79, -169, -128, -142, -117, -42, -167, -221, -115, -151, -29, 4, -58, -161, -82, -37, -168, -324, -262, -56, -57, -148, -44, -111, -76, -137, -229, -51, -32, -22, -65, -196, -13, -132, -145, 47, -138, -157, -19, -85, -240, 5, -74, -218, -242, -181, -245, -4, -135, 44, -209, -63, -105, -193, -31}
{-46, 92, -105, -9, -4, -15, 48, 147, -97, -65, -61, -93, 47, 134, 75, -124, -17, 147, 24, -14, -114, -76, 34, 129, 69, 84, -116, -111, 94, 75, 95, -25, -130, -78, 65, 214, 145, 43, 176, 188, 200, 188, 118, 127, -136, 121, 164, 93, -27, -84, 174, 131, -55, 146, -26, 108, -86, -103, -130, -13, 72, 44, 74, 209, 149, 318, 400, 452, 453, 476, 241, 171, 397, 175, 170, 186, 182, 92, 121, 22, 66, -39, -135, 41, -115, 13, 107, 62, 141, -124, 153, 168, 200, 405, 359, 449, 439, 422, 621, 586, 364, 460, 739, 737, 786, 696, 705, 409, 363, 88, -63, 80, 21, -27, -10, 124, 107, 39, 39, 251, -29, -53, 243, 91, 112, 40, 95, 143, 492, 488, 764, 777, 980, 1087, 935, 628, 89, 166, 23, -1, 25, 76, 43, -58, -104, -12, -87, -173, 129, -167, 59, -571, -303, -209, -77, -270, -270, 51, 366, 687, 596, 533, 420, 288, -34, 14, -146, 136, -19, 123, 114, -149, 52, -24, 47, 3, -213, -259, -658, -860, -500, -980, -433, -318, -453, -400, -111, -269, -435, -415, -644, -420, -349, -368, -55, 119, 47, 71, 4, -24, 8, -128, -259, -42, -367, -456, -663, -521, -936, -1049, -550, -522, -818, -774, -960, -1302, -1329, -1112, -1163, -919, -351, -318, -126, -96, -47, -40, 140, -180, -150, -199, -499, -110, -185, -522, -610, -699, -841, -976, -951, -1016, -1204, -1387, -1960, -1824, -1631, -1615, -1129, -994, -621, -391, -281, 41, -21, -110, -63, -125, 3, -115, -175, -101, 119, -315, -596, -457, -295, -555, -509, -1113, -1296, -1877, -2003, -1635, -1342, -1067, -1236, -795, -606, -450, -185, 97, -95, 122, 83, -145, -210, 53, 172, 166, 607, -13, 120, 50, -368, -250, -549, -1151, -1171, -1373, -1429, -1141, -775, -555, -730, -77, -475, -331, -99, -48, -77, 49, -84, -12, -84, 21, -46, 508, 363, 175, 220, 155, 155, 24, -266, -913, -857, -729, -732, -570, -267, 102, 349, 543, -2, -289, -121, -45, -77, -42, -125, -60, 72, 238, 363, 477, 221, 309, 218, 574, 553, 395, -340, -613, -26, -57, -600, -575, -72, 324, 784, 1391, 748, -214, -246, -75, -73, 129, 98, -141, -193, 77, 603, 324, 279, 137, 585, 489, 448, 79, -83, -15, 45, -132, -522, -69, -252, 417, 1085, 1719, 929, -75, 2, 84, -62, 13, 97, 5, -204, 216, 553, 477, 656, 615, 665, 720, 242, -352, 23, 293, 139, -229, -223, -32, 470, 465, 1229, 1430, 937, -14, -269, -133, 100, -51, 19, -111, -389, -49, 577, 767, 494, 775, 977, 1192, 311, -87, 460, 423, 65, -217, 43, 237, 550, 756, 694, 861, 459, -236, -147, -151, 26, -110, -114, -126, -513, -279, 855, 873, 578, 891, 1512, 1500, 457, 272, 652, 344, -180, -357, 123, 381, 177, 5, 355, 213, -104, -278, -171, -24, 25, 84, 116, -21, -732, -383, 357, 679, 773, 975, 1682, 1710, 883, 497, 503, 317, -1, 91, 700, 241, 100, -179, 160, -35, -200, -388, -56, 63, -58, -80, -3, -214, -687, -670, -325, 467, 748, 680, 1178, 1453, 1712, 795, 215, 442, 764, 495, 617, 324, 41, 108, 119, -68, -245, -181, -140, -149, 36, -104, 65, -271, -445, -714, -554, 39, 486, 763, 1016, 1620, 1823, 939, 839, 877, 624, 513, 801, 545, 353, 75, -128, -158, -166, -27, -80, 116, -72, -105, -37, -123, -569, -680, -589, -241, 160, 511, 841, 561, 1104, 1324, 1571, 1338, 725, 464, 900, 635, 430, -89, -334, 21, -81, -41, -102, 21, -14, 13, 42, -44, -216, -469, -796, -360, -216, 384, 698, 993, 1277, 1297, 1089, 939, 586, 801, 747, 477, 63, -254, -355, -207, 11, -134, -29, -75, -75, -13, 127, 34, -76, -408, -485, -650, -434, -197, -162, 78, 373, 161, 136, 403, 300, 2, -101, -451, -434, -361, -338, -33, -60, -126, 137, 52, 110, -44, -62, 12, 38, -169, -264, -579, -732, -1053, -1048, -1221, -753, -593, -463, -688, -904, -1025, -808, -369, -375, -328, -117, 16, -137, -113, -49, -14, 79, 63, 43, -130, -104, -49, -125, -202, -160, -256, -383, -484, -563, -551, -643, -642, -672, -513, -178, -166, -58, -92, 67, -30, -134, -43, -100, -98, 125, -117, 34, -60, -92, -18, 83, -7, -142, 51, -139, -22, 6, -147, -81, -50, -14, -128, -75, -142, -112, 17, -54, 101, 143, 126, 5, 95, 134, -7, 24, -26, -76, 113, 85, -74, -45, 64, -54, 28, -57, 83, 88, -114, -87, 115, 90, -45, 81, -31, -33, 50, 57, -29, -68, -39, 130, -7, 73, -75, 45, -4, 122, 17, -17, -145, -98, 44, -131, -109, -83, -133, -91, -45, -120, -91, -78, -64, 120, -118, -77, -114, -81, 22}
{12, 16, 121, 46, 198, -88, -59, 64, 152, 149, -85, 39, 42, -23, 159, 42, 3, -6, 16, 55, 102, 193, -52, 142, -20, 102, -9, -1, 182, -40, 41, 179, 69, 6, 178, 56, 17, -31, -24, -94, 153, -12, 184, -49, 79, 138, 155, 124, 4, 122, -4, 194, 149, -55, -53, 79, 172, 170, 134, -25, 155, -74, -61, 121, 102, -61, -14, 75, -22, -40, 47, 156, 126, 23, 61, 176, 150, 173, -88, 135, 51, 119, 102, 152, -14, 10, 158, -25, 17, -11, -59, 102, 0, 103, -85, 20, 82, -115, 94, -78, -168, -138, -118, -80, -20, -73, 63, -9, 76, 195, -65, 80, 189, -69, 105, -81, 44, -37, 8, -78, 58, -28, -186, -358, -376, -359, -427, -703, -415, -313, -272, -74, -203, 94, 14, -99, 179, -7, 175, 170, 161, 6, 155, -43, -122, -21, -94, -35, -111, -257, -630, -773, -973, -1140, -1422, -1412, -1480, -1306, -1107, -842, -598, -214, -330, -42, 144, 115, -30, 6, 134, 183, 12, 29, 198, 236, 276, 416, 618, 495, 526, 94, -423, -887, -926, -481, -292, -347, -421, -487, -736, -277, -516, -376, -252, -85, -88, 20, 122, 185, 152, 360, 436, 392, 568, 869, 1190, 943, 650, 716, 763, 146, 108, 273, 805, 895, 607, 486, 118, -135, 63, -146, -136, -8, 96, -37, -94, 193, 74, 304, 615, 555, 743, 1334, 898, 618, 787, 1054, 1002, 504, 294, 409, 710, 1092, 748, 641, 512, 11, 310, 263, -188, -90, 103, 159, 82, 154, 207, 438, 603, 685, 251, 334, 379, 250, 614, 752, 959, 780, 1118, 1376, 1268, 1415, 924, 941, 791, 660, 312, -114, -193, -95, 83, -43, 31, 168, 186, 545, 624, 519, 95, 156, -211, -8, 381, 670, 466, 1086, 1397, 1716, 1954, 1448, 1140, 1186, 1041, 885, 391, -160, -265, -108, 20, -41, 148, 104, 188, 558, 672, 333, 121, 108, 31, 403, 208, 262, 434, 430, 447, 1313, 1705, 1136, 1148, 882, 857, 539, 389, -136, -395, -12, 37, 172, 132, -10, 93, 351, 394, 64, 88, 375, 257, -15, -308, -818, -1730, -2677, -2004, 43, 1131, 1026, 403, 145, 27, -148, -135, -242, -175, 163, 114, 1, 142, 84, 154, 319, 118, 50, -105, 68, -49, -263, -859, -1810, -3177, -3549, -1899, -249, 577, 372, 80, 169, -348, -446, -105, 32, -85, -68, 90, -88, -39, 76, 285, 355, 225, 261, -87, -183, -403, -944, -1387, -2145, -2750, -2320, -851, 19, 176, 366, 1050, 1129, 679, 434, 436, 378, 128, 38, -61, -55, 92, 135, 49, 134, 134, -381, -170, -236, -1013, -1229, -1634, -1872, -2039, -1503, -878, 26, 95, 1429, 1673, 1379, 1224, 1053, 680, 307, -13, -85, 22, 146, 91, 181, -15, 190, 149, -171, -241, -35, -815, -920, -1482, -1761, -1104, -618, -896, 460, 557, 1209, 1036, 1085, 863, 657, 129, -271, -168, -96, 102, 178, 5, 23, 109, -8, 36, -109, -550, -724, -909, -750, -994, -738, -236, 183, 104, 183, -109, 290, 259, 184, 97, -151, -335, -151, -131, -103, -56, -50, -51, -17, 124, 38, -223, -530, -875, -1089, -1011, -946, -1216, -418, -127, 14, 341, -361, -444, -245, -559, -343, -575, -884, -647, -408, -321, 33, -36, 7, 173, 185, 169, 84, -151, -688, -1102, -1182, -1214, -1221, -827, -596, -356, 154, 483, -505, -493, -622, -989, -937, -1154, -1065, -811, -559, -284, -106, 177, -81, -93, -42, 72, -30, -174, -531, -1110, -1158, -1092, -1067, -744, -767, 55, 76, 256, -677, -846, -1105, -1525, -971, -1337, -1020, -738, -314, -210, 158, 150, 102, 142, 149, 33, -196, -99, -474, -555, -800, -721, -429, -610, -497, -223, 30, -134, -457, -525, -1090, -1086, -1088, -1146, -970, -570, -431, -19, 66, 143, -32, 48, 11, 38, -121, -55, 70, -174, 86, 137, -219, -417, -712, -665, -269, 79, 78, -414, -512, -873, -872, -983, -861, -437, -148, 95, -93, 45, 2, 67, 135, -105, -96, 180, 241, 524, 699, 334, 66, -206, -476, -389, 26, 272, 251, -105, -156, -559, -779, -797, -623, -514, -335, -148, 11, 9, -56, -2, -19, 49, 116, 250, 575, 871, 982, 834, 430, 926, 547, 474, 668, 411, 593, 351, 274, -18, -256, -273, -331, -373, -340, 51, -27, -89, 101, -91, 82, 150, 140, 81, 287, 424, 656, 1015, 991, 1173, 1091, 972, 770, 787, 834, 699, 653, 526, 180, -222, 29, -110, -81, -26, 50, 198, 129, -71, 38, 187, -32, -64, 175, 12, 160, 153, 21, 220, 325, 93, 279, 598, 739, 583, 747, 426, 201, 6, 77, -21, 43, 8, -51, -12, -26, -93, 75, 51, 94, 128, 76, 33, 13, 210, 128, 38, 130, 63, 243, 144, 110, 337, 114, 101, 234, 27, -40, 191, 104, 48, -35, -79, 127}
{-115, -92, -112, -53, -68, 22, -235, -51, -158, -134, -189, 19, -75, -13, -196, -11, -61, -211, 21, -93, -111, -118, -102, 43, 1, -135, -168, -106, -112, -234, 39, 0, -214, -207, -227, -207, 29, -87, -96, -233, 25, -38, -159, -121, -36, -76, -181, -69, 22, -219, -40, -179, -17, 48, -159, -180, -196, -4, -79, -98, -187, -230, -78, -236, 41, -237, -226, -47, -80, -243, -49, -66, -257, -152, -151, -33, -8, -13, -57, -105, 22, -160, -37, 30, -176, -102, -100, -204, 40, -193, -221, -133, -231, -81, -174, -322, -358, -434, -361, -214, -362, -281, -196, -120, -274, 16, -144, -15, -156, -50, -74, -215, -94, -28, -135, -215, -12, -17, -94, -195, -195, -115, -102, -56, 311, 200, 678, 514, 233, 127, 192, -171, -209, -109, -314, -225, -8, 14, -122, -94, -90, -43, -27, -9, -185, -110, -160, -431, -174, 153, -356, 473, 890, 741, 771, 368, 303, 713, 35, -33, 254, 131, -433, -364, -252, 191, -79, 32, -176, -191, -232, -226, -260, -254, -407, -409, 28, 120, -32, 229, 362, 290, 409, 767, 371, 436, 92, 498, 190, 233, 291, 271, 229, 96, -94, -24, 33, -174, -205, -160, -271, -99, -278, -17, 274, 112, 137, -87, -351, -263, -388, 232, 291, -19, 198, -217, 297, 463, 83, 960, 588, -23, 14, -41, -41, 12, -48, -190, -51, -90, 398, 245, 88, 690, 39, 23, 461, 597, -472, -401, 326, -232, 108, 312, 206, 636, 426, 725, 660, -79, -57, 65, 3, 13, -104, -128, -70, 403, 299, 616, 826, 696, 441, 776, 210, 224, -908, -1263, -441, 67, 136, 245, 323, 279, 666, 684, -112, -95, 152, -210, -167, 6, -177, 17, 155, 495, 492, 902, 669, 782, 1143, 548, 572, 467, -152, -1202, -985, -301, 342, 340, 349, 813, 899, 734, 9, -54, -96, -159, -177, 40, -16, -279, 236, 546, 1040, 1351, 1062, 1341, 918, 434, 559, 1335, 1626, -201, -969, -334, -318, 133, 735, 881, 1171, 1105, 769, 124, 67, -64, -154, -52, -130, -61, -50, 653, 541, 827, 781, 981, 167, 234, 129, 1613, 1621, 363, 61, -142, -117, 406, 689, 1185, 1380, 1151, 722, 289, 143, -204, -225, -82, 45, -193, -146, -4, -105, -99, 88, -120, -354, 134, 592, 1511, 452, 1111, 442, -282, 26, 36, 492, 446, 253, 360, 191, 42, 43, -38, -137, -229, -32, -96, -202, -440, -784, -1005, -1187, -951, -133, 607, 584, 1235, 987, 668, -82, 83, -174, -403, -656, -587, -505, -597, -271, -40, -242, 6, 19, -147, -169, -71, -221, -437, -977, -1197, -1092, -267, 41, 26, 843, 997, 872, 503, -253, -220, -155, -884, -1101, -845, -536, -510, -385, -67, -266, 21, -119, -219, -151, -80, -353, -632, -1015, -599, 402, 446, 182, 409, 815, 714, 256, 426, 144, -335, -714, -1020, -1020, -1036, -831, -276, -364, -125, -129, -225, 49, 34, -175, -214, -234, -654, -896, 158, 832, 1031, 330, 780, 1270, 770, 65, -207, 92, -396, -1048, -497, -493, -696, -516, -325, -185, -265, -44, -137, -159, 10, -227, -291, -399, -409, -253, 246, 684, 1235, 863, 1177, 766, 441, -536, -139, -302, -804, -194, -152, 59, -443, -68, -376, -512, -263, -43, 32, -156, -77, -58, -347, -442, -178, 117, 326, 339, 836, 429, -60, 204, -561, -656, -251, -206, -269, 206, 59, 265, 22, 172, -147, -390, -234, -199, 23, -191, -42, -175, -255, -511, -87, 81, 723, 215, -94, -5, -613, 38, -17, -581, -106, -679, -215, 119, 74, 214, 364, 363, -90, -240, -315, -94, -184, 16, -102, 35, -401, -596, -60, 313, 669, 140, 286, -53, -443, -248, 152, -14, -70, -520, -219, -145, -21, -13, 124, 107, -157, -189, -12, -40, -121, -61, -228, -146, -255, -475, -709, 84, 190, -44, -227, 143, 51, 845, 887, 626, 490, -43, -47, 211, -264, -285, 121, -51, -182, -46, -47, -53, -176, -178, -23, -81, -227, -497, -1185, -929, -468, 161, 159, 343, 448, 1001, 1440, 1225, 977, 791, 566, 450, 575, 424, 101, -54, -134, -262, -25, -232, -47, -29, -46, 44, -204, -206, -784, -1088, -914, -57, 213, -81, 387, 285, 188, 474, 1031, 1095, 735, 1030, 967, 318, 18, -219, 22, -90, -151, 35, -60, 47, -35, 22, -206, -156, -292, -411, -511, -570, -571, -214, -404, -239, -243, -25, 362, 258, 327, 373, 59, -80, -11, -248, -238, -21, -66, -154, -72, -39, 5, -114, -167, -242, -204, -312, -88, -282, -241, -290, -166, -183, -156, -230, -167, -202, -267, -298, -188, -130, -41, -118, 52, 48, -224, -71, -95, -51, -173, -108, -69, -59, -230, -9, -155, 37, -114, -199, -22, -162, -195, -122, -52, -73, 4, 31, 45, -39, -66, -42, -178, -82, 33, -213, -81}
{144, 126, -40, 88, 81, 132, -50, 24, 152, -63, -19, 66, 192, 125, -79, -37, -41, 75, 139, 10, 13, -11, -62, 21, 156, 47, -72, 77, 129, 108, 52, -31, -76, -62, -13, 194, -74, 157, 60, 97, 75, 110, 2, -86, -44, 119, -6, 34, 151, -12, 26, 13, 83, 162, -2, 34, 171, 175, 13, 119, 145, -7, -18, 52, 145, -21, -45, 111, 65, 139, -83, 147, -53, -57, 13, -71, 168, -45, -61, 167, 30, 29, 37, 74, 209, 7, -20, 61, 65, -70, 171, 93, -34, 172, 54, 136, -15, -156, -15, -237, -30, -124, 40, 24, 52, -14, 135, -18, -21, 187, 69, 118, 22, 38, 9, -41, -67, 120, 83, -16, -107, 40, -176, -247, -348, -630, -802, -1072, -792, -795, -591, -260, -122, -88, 29, 149, 116, 108, 0, 5, 144, 102, 120, 76, 91, -115, -102, -113, -364, -357, -386, -507, -636, -752, -1147, -1239, -1566, -1032, -651, -316, -333, -433, -403, -288, -115, -54, 17, 101, 130, 133, -84, 134, 85, -387, -471, -555, -626, -768, -564, -181, 45, 692, 1033, 821, 575, 478, 606, -103, -147, -462, -828, -771, -442, -215, -33, 69, 199, -8, -65, -72, -443, -673, -792, -943, -892, -315, -26, 244, 938, 1120, 1535, 1543, 1606, 728, 548, 59, 142, 161, -554, -992, -585, -146, -150, 131, 193, 194, 98, -60, -461, -697, -812, -1135, -300, -139, -161, -323, -25, 449, 1316, 726, 739, 151, 58, 39, -244, 126, -312, -791, -668, -321, -140, 180, 58, 35, 13, -330, -718, -551, -156, -316, -188, -86, 337, 203, 59, 543, 910, 811, -32, -233, 8, -485, -206, -509, -545, -581, -396, -173, -126, 160, 34, -7, -78, -127, -554, -290, 269, 353, 716, 711, 612, 922, 464, 109, 118, -468, -279, -56, 325, -7, 261, -157, -322, -304, -385, -110, -146, 91, -31, 36, -84, -53, -152, 508, 1177, 878, 1380, 553, 573, 985, -314, -267, -145, 69, 380, 1334, 630, 638, 1047, 758, 442, 91, -73, -181, -8, 0, 83, 171, -119, -190, 429, 1116, 1291, 766, 957, 1170, 747, 8, -751, 649, 1403, 1110, 949, 1451, 1462, 1517, 1560, 1042, 501, 13, -233, 37, 84, 91, 192, 118, -163, 60, 649, 976, 920, 604, 758, 486, 440, -228, -394, 1021, 1400, 1015, 1169, 1048, 1438, 1463, 1143, 668, 38, -456, -266, -83, 86, 87, 38, 19, 132, 84, 297, 280, 762, 533, 259, -3, 94, -48, -288, 331, 188, 895, 950, 951, 647, 416, 519, 9, -525, -763, -316, 52, 29, 35, 146, 133, 88, -107, 21, 339, 324, 214, 218, -403, -187, -189, -281, -218, -264, 978, 1432, 1373, 687, 66, -299, -788, -983, -702, -313, 5, 80, -12, 168, 14, -121, -31, 10, 101, -263, 207, 588, -138, 334, 473, -65, -539, -91, 543, 977, 971, 242, -553, -917, -1268, -890, -723, -479, 15, -105, 90, 55, -38, -132, -193, -361, -439, -362, 162, 317, 361, 550, 801, 488, 227, 310, 797, 236, -162, -353, -810, -800, -861, -810, -596, -434, 43, 44, -39, 155, -1, -91, -37, -317, -728, -742, -728, -306, 121, 878, 709, -434, -440, 27, 527, -324, -370, -691, -416, -390, -609, -641, -671, -475, -76, 9, 141, 100, 201, 35, -174, -291, -515, -814, -835, -865, -858, -960, -811, -1050, -734, -619, -704, -607, -199, -462, -129, -309, -366, -346, -308, -194, 55, -61, 21, -38, 28, 85, 6, -301, -497, -754, -1181, -1352, -1517, -2053, -1572, -1531, -501, -703, -330, -396, -107, -673, -222, -268, -429, -121, -206, 20, 171, 103, 32, 13, 0, 171, -182, -203, -490, -692, -1068, -1213, -1334, -1399, -1258, -802, -791, -804, -462, -500, -752, -908, -385, -215, -124, 60, -18, 76, 105, 5, 12, 131, 32, 37, 125, -81, -396, -634, -862, -642, -670, -732, -494, -556, -739, -621, -871, -963, -944, -785, -698, -192, 234, 130, 161, 264, 55, 61, 96, 154, 120, 45, -61, -112, -341, -396, -524, -40, -212, -170, -635, -517, -652, -552, -941, -1016, -895, -558, -55, 218, 506, 729, 611, 285, -20, 205, -24, -1, -81, -22, 172, 124, 194, 141, 205, 290, 156, -104, -326, -24, -500, -631, -667, -303, 219, 374, 386, 882, 949, 546, 334, 263, -52, 117, -8, 42, 171, 171, -19, 16, 293, 222, 641, 702, 715, 619, 245, 651, 580, 556, 522, 976, 1061, 1167, 1218, 1359, 964, 376, 178, -24, -15, 49, 41, 7, 156, 41, -57, 156, 243, 341, 473, 539, 818, 844, 948, 1122, 1132, 1387, 800, 548, 462, 682, 736, 534, 372, 154, 55, 34, 61, -59, 34, -38, 71, -65, 189, 108, 60, -27, 183, 155, 106, -35, -39, 36, -35, 39, 118, 10, 64, 209, 186, 105, 64, -53, 207, 112, -39, 14, -21}
}